digraph Tree {
node [shape=box, style="filled, rounded", color="black", fontname=helvetica] ;
edge [fontname=helvetica] ;
0 [label="petal length (cm) <= 2.45\ngini = 0.66\nsamples = 96\nvalue = [57, 53, 40]\nclass = setosa", fillcolor="#fefaf7"] ;
1 [label="gini = 0.0\nsamples = 36\nvalue = [57, 0, 0]\nclass = setosa", fillcolor="#e58139"] ;
0 -> 1 [labeldistance=2.5, labelangle=45, headlabel="True"] ;
2 [label="petal length (cm) <= 4.75\ngini = 0.49\nsamples = 60\nvalue = [0, 53, 40]\nclass = versicolor", fillcolor="#cef9e0"] ;
0 -> 2 [labeldistance=2.5, labelangle=-45, headlabel="False"] ;
3 [label="gini = 0.0\nsamples = 30\nvalue = [0, 46, 0]\nclass = versicolor", fillcolor="#39e581"] ;
2 -> 3 ;
4 [label="sepal width (cm) <= 2.75\ngini = 0.25\nsamples = 30\nvalue = [0, 7, 40]\nclass = virginica", fillcolor="#975cea"] ;
2 -> 4 ;
5 [label="petal width (cm) <= 1.7\ngini = 0.49\nsamples = 8\nvalue = [0, 6, 8]\nclass = virginica", fillcolor="#e0cef8"] ;
4 -> 5 ;
6 [label="sepal width (cm) <= 2.35\ngini = 0.24\nsamples = 3\nvalue = [0, 6, 1]\nclass = versicolor", fillcolor="#5ae996"] ;
5 -> 6 ;
7 [label="gini = 0.0\nsamples = 1\nvalue = [0, 0, 1]\nclass = virginica", fillcolor="#8139e5"] ;
6 -> 7 ;
8 [label="gini = 0.0\nsamples = 2\nvalue = [0, 6, 0]\nclass = versicolor", fillcolor="#39e581"] ;
6 -> 8 ;
9 [label="gini = 0.0\nsamples = 5\nvalue = [0, 0, 7]\nclass = virginica", fillcolor="#8139e5"] ;
5 -> 9 ;
10 [label="petal length (cm) <= 4.85\ngini = 0.06\nsamples = 22\nvalue = [0, 1, 32]\nclass = virginica", fillcolor="#853fe6"] ;
4 -> 10 ;
11 [label="sepal width (cm) <= 3.1\ngini = 0.38\nsamples = 3\nvalue = [0, 1, 3]\nclass = virginica", fillcolor="#ab7bee"] ;
10 -> 11 ;
12 [label="gini = 0.0\nsamples = 2\nvalue = [0, 0, 3]\nclass = virginica", fillcolor="#8139e5"] ;
11 -> 12 ;
13 [label="gini = 0.0\nsamples = 1\nvalue = [0, 1, 0]\nclass = versicolor", fillcolor="#39e581"] ;
11 -> 13 ;
14 [label="gini = 0.0\nsamples = 19\nvalue = [0, 0, 29]\nclass = virginica", fillcolor="#8139e5"] ;
10 -> 14 ;
}